{
  "W": [
    [
      -0.012353243343786492,
      -0.0018710489245618465,
      -0.13352040218299369,
      0.003804597821421833,
      -0.03689867103228755,
      -0.023480681383058765,
      -0.022947724898159945,
      -0.09721558789826583,
      -0.008698417724557525,
      -0.009123312698995877,
      0.01392135802446685,
      -0.01617380883637244,
      -0.03161865056975627,
      -0.013182605590713077,
      -0.015791131424455443,
      -0.05673894154078421,
      -0.008882653324572543,
      -0.009769520311294435,
      -0.009874305079536513,
      0.0010998678974814518,
      0.001012469373903013,
      -0.013791768340981952
    ],
    [
      -0.007966849906188346,
      0.009196922237510457,
      -0.1255988623530106,
      -0.004359812185793366,
      -0.020080911190199984,
      -0.008101888083884689,
      -0.014736540965874638,
      -0.12033574956814848,
      0.003336265890390142,
      -0.03683073698347832,
      -0.006355780198231815,
      -0.023334056807707493,
      -0.021013225221143312,
      -0.013932705218917598,
      -0.014986069795983459,
      -0.025165573280287297,
      0.0020306689045913083,
      0.006014093838563557,
      -0.006026278166651248,
      0.0044240163946199455,
      0.011307414498095022,
      -0.012003733835903536
    ],
    [
      0.01548820383507391,
      -0.007779633405496564,
      0.13293998746396196,
      0.001423561186630893,
      0.03313386749615002,
      0.03267751537934832,
      0.03469768180411888,
      0.1251691729160686,
      0.0005600780165791079,
      0.051716879037655136,
      0.008090124622569448,
      0.028814688665555793,
      0.03241890665170726,
      0.01708814421210698,
      0.010998165727683567,
      0.051718968095993606,
      0.0034834268496758154,
      -0.0004256954013281089,
      -0.003125288420195595,
      0.02341304365875974,
      -0.006059397739692697,
      0.009769404064696756
    ],
    [
      -0.01575629037852198,
      -0.011655125931612715,
      -0.120657847533145,
      0.01774327939240605,
      -0.04294484761520038,
      -0.032041749652048736,
      -0.01771299950731264,
      -0.12220761037553009,
      -0.0009405239057466432,
      -0.043559281714466484,
      0.00035147898773794364,
      -0.04107805886209859,
      -0.023061040258608532,
      -0.006662808696061273,
      -0.01594737528268056,
      -0.04424355564388405,
      -0.005286639968988752,
      -0.007758354801537929,
      0.0013781457586499097,
      0.00409406911229168,
      -0.021821313249576625,
      0.009524622646136951
    ],
    [
      0.01004951342640535,
      0.0017996357690234597,
      -0.03362178862605773,
      0.0021401182747414586,
      0.014807720735446709,
      -0.01838461350628018,
      0.010942673209209901,
      -0.02197413631618915,
      0.027502565336844517,
      -0.037754942247231846,
      -0.003358585585386042,
      -0.018852354460868095,
      -0.007339579901138066,
      0.0025401000197235084,
      0.010797962614256976,
      0.014139955123864631,
      -0.0004289006336408104,
      0.004248971705346064,
      -0.004465401043690336,
      -0.007451813225829443,
      -0.00491956173127623,
      -0.007330997116818414
    ],
    [
      -0.0026459147116136396,
      0.004924929478533277,
      -0.1183017732205807,
      -0.010212312208726981,
      -0.035139801265152155,
      0.016379408813722598,
      -0.013665621489471232,
      -0.09998898710291858,
      -0.0104481373451956,
      -0.0308606576285016,
      -0.008601649038668278,
      -0.03976687102015167,
      -0.04221440999768013,
      0.004889443495769816,
      0.0008010549570897432,
      -0.023134046219174597,
      -0.010642662296189905,
      0.015167870130850152,
      0.012219815254740864,
      -0.0003456495624239972,
      0.01297428834688395,
      -0.015173665396227875
    ],
    [
      -0.0019516038443468252,
      -0.00032582661983587423,
      -0.11100681477562814,
      0.0031253337139985787,
      -0.022363273176055985,
      -0.00278083668789103,
      -0.003910031453888724,
      -0.0938897359011963,
      0.005444389787681316,
      -0.01478412774305016,
      -0.006909741691664903,
      -0.02100876547209451,
      -0.029578541916885966,
      -1.9572223622976075e-05,
      -0.011477174115760326,
      -0.026040896683916084,
      -0.0062281368527607696,
      0.01439197296331621,
      -0.0013660667631763832,
      0.01319031874269031,
      0.0032253162938127244,
      -0.011331965999298936
    ],
    [
      0.001698503208616962,
      6.914579831240794e-05,
      0.14248559791145285,
      -0.006826770338762282,
      0.05061114336189926,
      0.02433334979331312,
      0.02849113642835177,
      0.14244044765232905,
      0.012652495460138658,
      0.04347900839139267,
      0.006475892210212865,
      0.04638113658101608,
      0.032010812186545994,
      -0.0075246298120311495,
      0.030607472449408656,
      0.05322128095678374,
      -0.0024945656889011083,
      0.0022057686211533977,
      0.00904447563801646,
      -0.0017939883024733019,
      -0.004089295308483395,
      0.015867764452145213
    ],
    [
      0.006105478516698595,
      -0.005636339589337319,
      -0.10917546112239854,
      -0.0031867244413399266,
      -0.026428586289357812,
      -0.01475448324259865,
      -0.02572155959390498,
      -0.13041753999777808,
      0.008493034599097317,
      -0.05336923911540615,
      -0.01787272393941981,
      -0.029528819529985973,
      -0.04441478984205098,
      0.004800187051018487,
      0.0002236538331727607,
      -0.03861523106506745,
      -0.0010970671227201712,
      0.009056784768500567,
      0.003309604072002596,
      0.008245318452468857,
      0.009649395594427231,
      -0.0032937459608146304
    ],
    [
      -0.0030039359726608036,
      -0.003613378791959302,
      -0.05494103969007755,
      0.004958647076504501,
      -0.03611767334835708,
      -0.006666385932618701,
      -0.0042014302133339745,
      -0.054803152972807724,
      -0.003214524180266908,
      0.012078830423439397,
      -0.007268191770430571,
      -0.026165214134224773,
      -0.010472747266629591,
      -0.03349776518487846,
      -0.01560769651472988,
      -0.026125226590754703,
      -0.0013376643252121473,
      0.01317572571163654,
      0.013138389146146668,
      0.008374564213030438,
      0.0036496048005043077,
      0.0004801157862879984
    ]
  ],
  "b": [
    -0.11711310141704197,
    -0.1202598082933607,
    0.13249395781637777,
    -0.13427003811731483,
    -0.03178498476886201,
    -0.11333176314273277,
    -0.09772011123834402,
    0.12939576601392036,
    -0.11759031920611124,
    -0.05707578751693202
  ],
  "prediction_errors": [
    0.11805187264660824,
    0.11791116510186979,
    0.1175761487043769,
    0.11775537675906111,
    0.11842517276946725
  ],
  "training_steps": 61,
  "ewc_fisher": {},
  "ewc_optimal": {},
  "buffer_size": 5,
  "saved_at": "2026-03-02T05:47:54.121270"
}